FANN_FLO_2.1
num_layers=12
learning_rate=0.700000
connection_rate=1.000000
network_type=1
learning_momentum=0.000000
training_algorithm=2
train_error_function=0
train_stop_function=0
cascade_output_change_fraction=0.010000
quickprop_decay=-0.000100
quickprop_mu=1.750000
rprop_increase_factor=1.200000
rprop_decrease_factor=0.500000
rprop_delta_min=0.000000
rprop_delta_max=50.000000
rprop_delta_zero=0.100000
cascade_output_stagnation_epochs=12
cascade_candidate_change_fraction=0.010000
cascade_candidate_stagnation_epochs=12
cascade_max_out_epochs=150
cascade_min_out_epochs=50
cascade_max_cand_epochs=150
cascade_min_cand_epochs=50
cascade_num_candidate_groups=2
bit_fail_limit=3.49999994039535520000e-001
cascade_candidate_limit=1.00000000000000000000e+003
cascade_weight_multiplier=4.00000005960464480000e-001
cascade_activation_functions_count=10
cascade_activation_functions=3 5 7 8 10 11 14 15 16 17 
cascade_activation_steepnesses_count=4
cascade_activation_steepnesses=2.50000000000000000000e-001 5.00000000000000000000e-001 7.50000000000000000000e-001 1.00000000000000000000e+000 
layer_sizes=7 1 1 1 1 1 1 1 1 1 1 2 
scale_included=0
neurons (num_inputs, activation_function, activation_steepness)=(0, 0, 0.00000000000000000000e+000) (0, 0, 0.00000000000000000000e+000) (0, 0, 0.00000000000000000000e+000) (0, 0, 0.00000000000000000000e+000) (0, 0, 0.00000000000000000000e+000) (0, 0, 0.00000000000000000000e+000) (0, 0, 0.00000000000000000000e+000) (7, 8, 1.00000000000000000000e+000) (8, 8, 2.50000000000000000000e-001) (9, 15, 7.50000000000000000000e-001) (10, 15, 7.50000000000000000000e-001) (11, 15, 5.00000000000000000000e-001) (12, 15, 7.50000000000000000000e-001) (13, 8, 5.00000000000000000000e-001) (14, 3, 2.50000000000000000000e-001) (15, 15, 2.50000000000000000000e-001) (16, 8, 2.50000000000000000000e-001) (17, 6, 5.00000000000000000000e-001) (17, 6, 5.00000000000000000000e-001) 
connections (connected_to_neuron, weight)=(0, -8.45659196376800540000e-001) (1, 1.07750222086906430000e-001) (2, 5.65248966217041020000e-001) (3, -9.26426872611045840000e-002) (4, -1.41189172863960270000e-001) (5, -8.88535201549530030000e-001) (6, -2.04966831952333450000e-002) (0, 1.34309619665145870000e-001) (1, 3.24224042892456050000e+000) (2, -2.01057009398937230000e-002) (3, -1.76478552818298340000e+000) (4, 1.01808607578277590000e+000) (5, 3.55341887474060060000e+000) (6, 2.07541167736053470000e-001) (7, -4.67356219887733460000e-002) (0, 1.22362864017486570000e+000) (1, 1.29417216777801510000e+000) (2, -9.15446162223815920000e-001) (3, -2.73455166816711430000e+000) (4, -2.37398862838745120000e+000) (5, 5.63430786132812500000e+000) (6, 5.34870433807373050000e+000) (7, 1.35918891429901120000e+000) (8, 7.35614478588104250000e-001) (0, -2.03486204147338870000e+000) (1, -1.88003265857696530000e+000) (2, -1.98525500297546390000e+000) (3, 1.53590011596679690000e+000) (4, 3.43429994583129880000e+000) (5, 2.50242114067077640000e+000) (6, 3.84189915657043460000e+000) (7, -5.51610469818115230000e-001) (8, -1.80348992347717290000e+000) (9, -2.10927948355674740000e-001) (0, 7.13348031044006350000e-001) (1, -3.59876215457916260000e-001) (2, -4.23364549875259400000e-001) (3, 3.46758574247360230000e-001) (4, -2.09957346320152280000e-001) (5, 2.97183442115783690000e+000) (6, 3.36362868547439580000e-002) (7, 3.46490383148193360000e-001) (8, -1.57238811254501340000e-001) (9, 9.85321223735809330000e-001) (10, 1.58036470413208010000e+000) (0, 2.67762392759323120000e-001) (1, -1.64135110378265380000e+000) (2, -1.59975647926330570000e-001) (3, 2.26009368896484380000e-001) (4, -1.23771798610687260000e+000) (5, 1.75756192207336430000e+000) (6, 7.36853420734405520000e-001) (7, 1.23164206743240360000e-001) (8, 1.65303802490234370000e+000) (9, -1.97925484180450440000e+000) (10, 6.41715407371521000000e-001) (11, 9.11069571971893310000e-001) (0, -1.28133654594421390000e+000) (1, 4.39692854881286620000e-001) (2, 2.52566003799438480000e+000) (3, 2.24382385611534120000e-001) (4, 2.71826457977294920000e+000) (5, 2.87485510110855100000e-001) (6, -2.76382350921630860000e+000) (7, 1.14504647254943850000e+000) (8, 5.21503388881683350000e-001) (9, 1.97046443819999690000e-001) (10, -9.70137357711791990000e-001) (11, -9.67046856880187990000e-001) (12, 2.75340616703033450000e-001) (0, 1.30428352355957030000e+001) (1, 1.37826693058013920000e+000) (2, -6.69625282287597660000e+000) (3, 2.22932553291320800000e+000) (4, -1.95881962776184080000e+000) (5, -9.26003634929656980000e-001) (6, -1.63481464385986330000e+001) (7, 2.60134458541870120000e+000) (8, -8.59211802482604980000e-001) (9, -2.67394638061523440000e+000) (10, 9.68918323516845700000e-001) (11, -1.85209441184997560000e+000) (12, -7.04786777496337890000e-001) (13, 7.83737838268280030000e-001) (0, 3.12463426589965820000e+000) (1, 5.52739429473876950000e+000) (2, -3.46975088119506840000e+000) (3, -4.75336933135986330000e+000) (4, -2.34996843338012700000e+000) (5, -1.20405948162078860000e+000) (6, 4.45136833190917970000e+000) (7, 4.75414037704467770000e+000) (8, 1.50520765781402590000e+000) (9, 7.72304344177246090000e+000) (10, -9.41271543502807620000e-001) (11, -2.51374959945678710000e+000) (12, 2.06818175315856930000e+000) (13, 9.33367788791656490000e-001) (14, 3.20467033386230470000e+001) (0, 2.97726750373840330000e+000) (1, 2.88056164979934690000e-001) (2, -1.92843019962310790000e+000) (3, -6.32940769195556640000e-001) (4, -5.63750982284545900000e-001) (5, 4.44690895080566410000e+000) (6, 5.17384588718414310000e-001) (7, 2.24123144149780270000e+000) (8, 1.38362026214599610000e+000) (9, -1.75197970867156980000e+000) (10, -8.65802392363548280000e-002) (11, -6.50775134563446040000e-001) (12, 2.20940041542053220000e+000) (13, -1.36167442798614500000e+000) (14, -1.34938755035400390000e+001) (15, -1.65571260452270510000e+000) (0, 1.93944668769836430000e+000) (1, -9.90689024329185490000e-002) (2, -2.08218216896057130000e-001) (3, -4.13848981261253360000e-002) (4, -3.27487349510192870000e-001) (5, 2.83009767532348630000e-001) (6, 2.44488894939422610000e-001) (7, 1.51855158805847170000e+000) (8, 8.84248539805412290000e-002) (9, 1.46731138229370120000e-001) (10, -3.35315048694610600000e-001) (11, 3.17672252655029300000e-001) (12, 4.67356741428375240000e-002) (13, 1.82908892631530760000e-001) (14, 1.22894775867462160000e+000) (15, -9.80215221643447880000e-002) (16, 1.67004257440567020000e-001) (0, -2.56005108356475830000e-001) (1, 1.80016982555389400000e+000) (2, 7.92196989059448240000e-002) (3, -1.94699779152870180000e-001) (4, -4.46379661560058590000e-001) (5, 4.84526246786117550000e-001) (6, 1.11426986753940580000e-001) (7, -2.64271736145019530000e-001) (8, 1.75752842426300050000e+000) (9, 5.45665860176086430000e-001) (10, 2.08931509405374530000e-003) (11, -1.42237886786460880000e-001) (12, 2.63122826814651490000e-001) (13, 1.05290219187736510000e-001) (14, 2.98282313346862790000e+000) (15, -2.01704964041709900000e-001) (16, -2.48231533914804460000e-002) 
